{
    "denseLayers": [
        {
            "inputs": [
                0.14261315633607197,
                0,
                0,
                0,
                0,
                0,
                0.061363935659108915
            ],
            "outputs": [
                0,
                0,
                0,
                0,
                0,
                0
            ],
            "biases": [
                0.9826364828656469,
                0.2709623212917145,
                -0.04696055633779217,
                0.0805555145348067,
                0.5685101109197515,
                0.4686207710209134
            ],
            "weights": [
                [
                    0.07298669223257326,
                    -0.7918841128897185,
                    -0.7913981589696748,
                    0.8600175213284778,
                    0.6041923108866287,
                    -0.806315605028114
                ],
                [
                    -0.8952410584738932,
                    -0.4182042182861543,
                    -0.05690020354937664,
                    0.01449196328009128,
                    -0.6469958235870745,
                    0.3915305425474642
                ],
                [
                    -0.9234891915920538,
                    0.17807511716729074,
                    0.5946324645650014,
                    0.6803070434966787,
                    -0.7930790567445656,
                    -0.3655396559963955
                ],
                [
                    0.57571494856073,
                    -0.9138604220855302,
                    0.6327095202117525,
                    0.7943122967493066,
                    0.7756733504138449,
                    0.5396236814236359
                ],
                [
                    -0.2994030714394884,
                    0.7204459314547149,
                    -0.4818907307503788,
                    -0.9676793569026487,
                    0.4553112948413296,
                    0.6884218216686846
                ],
                [
                    -0.4748301195163207,
                    -0.3350723253283183,
                    0.3358666271423605,
                    0.694364345637573,
                    -0.7574163851622755,
                    0.3896051553997997
                ],
                [
                    0.14394622738082363,
                    0.03874579750046969,
                    -0.8389427643095595,
                    -0.9925242507719312,
                    0.7092058199276967,
                    -0.9496827458385702
                ]
            ]
        },
        {
            "inputs": [
                0,
                0,
                0,
                0,
                0,
                0
            ],
            "outputs": [
                1,
                1,
                0,
                0
            ],
            "biases": [
                -0.13010138204443544,
                -0.06593329338385967,
                0.8756115220155083,
                0.7754198059983763
            ],
            "weights": [
                [
                    -0.2368519133238456,
                    -0.4308336800348549,
                    -0.894553866193947,
                    -0.5882588763815968
                ],
                [
                    0.014002256118646805,
                    0.86573442412563,
                    -0.8906573328259997,
                    -0.43540294895381226
                ],
                [
                    -0.7880698753473911,
                    -0.28769206229139455,
                    0.7653330880935125,
                    -0.28137114536778896
                ],
                [
                    -0.2986853385278847,
                    -0.12684716472057556,
                    0.9281668074323406,
                    0.642954419604556
                ],
                [
                    0.9000570398911347,
                    -0.9124471747282441,
                    -0.38302905208040894,
                    0.8882936728175626
                ],
                [
                    -0.4865756044282481,
                    -0.48757006081204146,
                    0.11324085143137097,
                    0.2625568941691929
                ]
            ]
        }
    ]
}