{
    "denseLayers": [
        {
            "inputs": [
                0.5588159584040566,
                0.39316620348387643,
                0,
                0,
                0,
                0,
                0
            ],
            "outputs": [
                0,
                1,
                1,
                1,
                1,
                1
            ],
            "biases": [
                0.6659149634087762,
                -0.22684773083978893,
                -0.5635846818500472,
                -0.9551232152034981,
                -0.6564290285139727,
                -0.3711484687136686
            ],
            "weights": [
                [
                    0.7538440477278892,
                    0.530959725940781,
                    -0.30945027255637303,
                    0.10825969866223772,
                    -0.8339145770488354,
                    0.4009650161447622
                ],
                [
                    0.3364091041721182,
                    0.8048260205874227,
                    0.03511471344052497,
                    -0.8305996741803043,
                    -0.04764725993046781,
                    0.3441764714865272
                ],
                [
                    0.3121751417583085,
                    0.31766692113129036,
                    0.8837017996745806,
                    0.6740697770862205,
                    -0.8395497316251821,
                    0.06813151618781221
                ],
                [
                    0.017345218021474373,
                    -0.59390444170953,
                    -0.6507843458605351,
                    -0.8149356758446098,
                    -0.5725135675572135,
                    0.69700240361498
                ],
                [
                    -0.29384810673980954,
                    -0.9724687330232751,
                    0.8740758206861576,
                    0.920503401855659,
                    -0.030961895144106855,
                    -0.34940413142425486
                ],
                [
                    -0.8072437719533436,
                    -0.6901611273554389,
                    0.7299413405502402,
                    0.3053806701816617,
                    -0.08942125834476489,
                    -0.07781347113924797
                ],
                [
                    -0.24581160949738345,
                    -0.542817790032323,
                    -0.7752844627880919,
                    0.12846010012064246,
                    -0.8891154504265928,
                    -0.8711637125891754
                ]
            ]
        },
        {
            "inputs": [
                0,
                1,
                1,
                1,
                1,
                1
            ],
            "outputs": [
                1,
                0,
                0,
                0
            ],
            "biases": [
                -0.24187357340704718,
                -0.9946683858635135,
                0.2619466186869617,
                0.44932606133113273
            ],
            "weights": [
                [
                    -0.24289271661542733,
                    0.044188668199040215,
                    0.4718504782466568,
                    0.4234405904469445
                ],
                [
                    -0.33980313051318856,
                    -0.7897245955240764,
                    0.8528453439983994,
                    -0.16548261319519053
                ],
                [
                    0.9936307601909591,
                    -0.38527253706313447,
                    -0.5595289376754735,
                    0.40401143345170354
                ],
                [
                    0.7261796809209491,
                    0.06692669524971206,
                    -0.6635042434205398,
                    -0.431432266465817
                ],
                [
                    -0.19361567042070016,
                    0.3689752824567907,
                    -0.27436719376097995,
                    -0.4288852859711394
                ],
                [
                    0.8872034293169047,
                    -0.3614580843776438,
                    0.7315784670074792,
                    -0.9320467666945249
                ]
            ]
        }
    ]
}