{
    "denseLayers": [
        {
            "inputs": [
                0,
                0,
                0,
                0,
                0.1820452258184614,
                0.5765954528185726,
                0.7006077735027931
            ],
            "outputs": [
                0,
                0,
                0,
                0,
                0,
                0
            ],
            "biases": [
                0.1994605298752632,
                0.1272500184341704,
                0.3762688904907643,
                0.14578069095575036,
                0.0307893962800646,
                0.17662455463604515
            ],
            "weights": [
                [
                    0.4205993444649064,
                    -0.09030632958070314,
                    -0.12541563434376168,
                    0.023982936888233233,
                    0.1164184081098537,
                    0.218916721199295,
                    -0.10264871329750165
                ],
                [
                    0.13050437861256134,
                    0.027323392284153765,
                    0.12478541061746959,
                    0.04910189339540145,
                    -0.29183769592681175,
                    -0.17700415518865142,
                    -0.10946402500362029
                ],
                [
                    0.1016718461980893,
                    0.12710039110146487,
                    -0.03544473695971298,
                    0.25341612221902826,
                    -0.11950873344337867,
                    0.32337231127705157,
                    0.17369372798872673
                ],
                [
                    0.4124743681980241,
                    0.23032603172261892,
                    -0.4821365840401207,
                    -0.02394290021407975,
                    0.294807363038763,
                    0.05688391756161953,
                    0.1955426376889122
                ],
                [
                    0.06653993650895386,
                    -0.04802786668202667,
                    -0.04966184110366842,
                    0.24490352612870628,
                    0.22005516939620895,
                    0.07190450125990049,
                    0.12541673387001964
                ],
                [
                    -0.2203122181804551,
                    0.07837054438802427,
                    0.06470973619922735,
                    -0.345011867676406,
                    0.1282430155122721,
                    -0.16833888934916505,
                    0.0332453952947473
                ],
                [
                    -0.059768284999301056,
                    -0.21155389355681842,
                    0.4353002105224877,
                    -0.12524064780641964,
                    -0.13780891357419872,
                    -0.20739829341479082,
                    0.08064957038123699
                ]
            ]
        },
        {
            "inputs": [
                0,
                0,
                0,
                0,
                0,
                0
            ],
            "outputs": [
                1,
                1,
                1,
                0
            ],
            "biases": [
                -0.2713754958201564,
                -0.16173360582553364,
                -0.04940980924612317,
                0.14307121079393612
            ],
            "weights": [
                [
                    -0.1257777528129274,
                    -0.2620711440840805,
                    0.1550151763371885,
                    -0.1610682798681799,
                    0.1933344996937464,
                    -0.16548858906009184
                ],
                [
                    -0.19223279655910744,
                    -0.19453618355695393,
                    -0.03786759686980783,
                    -0.004599294352182395,
                    -0.005973139378683927,
                    0.12351216441827906
                ],
                [
                    -0.12594548521116491,
                    -0.1110178033883818,
                    0.22711053830554023,
                    0.23210938999480318,
                    0.21545263635883413,
                    -0.007841058577966398
                ],
                [
                    0.07889797347264554,
                    0.004013504932557331,
                    -0.00022410156275900345,
                    -0.10954601624553767,
                    -0.018103175662181975,
                    -0.11688259283340831
                ],
                [
                    0.15497322666571406,
                    0.1400858142326188,
                    -0.1559195494308372,
                    0.1873284912388487,
                    0.10876611858983781,
                    0.018802159921370812
                ],
                [
                    -0.287337342109576,
                    0.24535669209588568,
                    0.008484546014859158,
                    -0.09790044283458199,
                    -0.1717128128667196,
                    0.24622178089986227
                ]
            ]
        }
    ]
}