{"denseLayers":[{"inputs":[0.8404650684146273,0.774383536079702,0.564142461326737,0,0,0,0],"outputs":[1,1,1,1,0,0],"biases":[-0.24356192712510705,-0.20504354630536303,-0.2509876836103859,-0.7559044015357026,0.37125705125932473,0.6977027449386979],"weights":[[0.9027104780218522,0.9336030645811744,0.10884297814790989,0.18054817379314114,-0.9200205646396329,-0.036933684352439045],[0.2627341308124316,0.6440825542291169,0.4849601343193606,-0.46443789200596086,0.2446151727983965,0.830368088133326],[-0.7908631714425272,-0.14148673654282007,-0.4823483923485412,-0.9171144615601912,-0.5191589693222252,-0.5129897508248122],[0.43584172807368926,-0.24408986292067025,-0.8209293467093257,-0.9623624207630765,-0.9246427755579094,-0.034290202979171625],[0.795579336513085,0.11452008865758456,0.5014325783844207,-0.39791178368813007,0.013839495349937891,-0.09602743444888295],[-0.6412985626604102,0.032724583917290495,0.5439885672840616,0.4386784971849007,0.40435595649669187,-0.739958961790963],[0.631964506976459,-0.8669388586224906,-0.4793509214329861,-0.45041582923870527,-0.3649114764159278,-0.894383644137418]]},{"inputs":[1,1,1,1,0,0],"outputs":[1,1,1,0],"biases":[0.13796341279810553,0.7087986099811192,0.8390697543205716,0.9309470122319632],"weights":[[0.20393822790932603,0.6422161025728546,-0.8740557802945772,-0.8635125576298446],[0.9374453933876095,-0.5504739591406671,0.8174908522916149,0.3067818790926209],[0.6665989409232265,0.5756260712863872,0.9769677835876363,-0.46024907966127815],[0.39597464604902877,0.9004218624640861,0.42210697374666806,-0.1569489997940936],[-0.8665373800481184,0.7384540182311232,0.0665472215773324,-0.178003967542415],[0.4978645723668156,-0.965245050379536,0.07407312346811912,-0.8643115494938862]]}]}